<?xml version="1.0"?>
<opencv_storage>
<my_svm type_id="opencv-ml-svm">
  <svm_type>C_SVC</svm_type>
  <kernel><type>RBF</type>
    <gamma>1.</gamma></kernel>
  <C>1.</C>
  <term_criteria><epsilon>1.1920928955078125e-007</epsilon>
    <iterations>1000</iterations></term_criteria>
  <var_all>200</var_all>
  <var_count>200</var_count>
  <class_count>2</class_count>
  <class_labels type_id="opencv-matrix">
    <rows>1</rows>
    <cols>2</cols>
    <dt>i</dt>
    <data>
      0 1</data></class_labels>
  <sv_total>29</sv_total>
  <support_vectors>
    <_>
      0. 0. 0. 0. 0. 0. 0. 0. 0. 0. 0. 0. 0. 0. 0. 0. 2.70270277e-002 0.
      0. 0. 0. 0. 0. 0. 0. 5.40540554e-002 0. 0. 0. 0. 0. 0. 0. 0. 0. 0.
      0. 0. 0. 0. 0. 0. 0. 0. 2.70270277e-002 0. 0. 0. 0. 0. 0. 0. 0. 0.
      0. 1.08108111e-001 0. 0. 0. 0. 0. 0. 2.70270277e-002 0. 0. 0. 0.
      0. 0. 0. 0. 0. 0. 0. 0. 0. 0. 0. 0. 0. 0. 0. 0. 0. 2.70270277e-002
      0. 0. 0. 0. 0. 0. 0. 0. 2.70270277e-002 0. 0. 2.70270277e-002
      2.70270277e-002 0. 0. 0. 0. 0. 8.10810849e-002 0. 0. 0. 0. 0. 0.
      0. 0. 5.40540554e-002 0. 0. 0. 0. 0. 0. 0. 0. 0. 0. 0. 0. 0.
      2.70270277e-002 2.70270277e-002 0. 2.70270277e-002 0. 0.
      2.70270277e-002 0. 0. 0. 0. 0. 0. 0. 8.10810849e-002 0. 0. 0. 0.
      0. 2.70270277e-002 0. 2.70270277e-002 0. 0. 0. 0. 0. 0. 0. 0. 0.
      0. 0. 0. 0. 0. 0. 0. 0. 0. 0. 0. 0. 0. 2.70270277e-002 0. 0. 0. 0.
      0. 0. 8.10810849e-002 0. 0. 0. 0. 0. 2.70270277e-002
      2.70270277e-002 0. 0. 5.40540554e-002 0. 0. 0. 0. 0. 0. 0. 0.
      5.40540554e-002 0. 0.</_>
    <_>
      0. 2.60869563e-002 8.69565178e-003 0. 0. 0. 0. 0. 8.69565178e-003
      0. 0. 1.73913036e-002 0. 0. 0. 0. 0. 0. 0. 8.69565178e-003 0. 0.
      0. 2.60869563e-002 0. 1.73913036e-002 0. 0. 0. 0. 1.73913036e-002
      8.69565178e-003 8.69565178e-003 0. 2.60869563e-002 0. 0.
      8.69565178e-003 8.69565178e-003 2.60869563e-002 0. 0. 0. 0.
      2.60869563e-002 8.69565178e-003 0. 0. 0. 0. 0. 0. 0. 0. 0.
      8.69565178e-003 0. 0. 0. 0. 6.95652142e-002 0. 0. 0.
      8.69565178e-003 8.69565178e-003 0. 8.69565178e-003 0. 0. 0. 0.
      8.69565178e-003 0. 0. 0. 0. 0. 0. 0. 8.69565178e-003 0. 0. 0. 0.
      0. 0. 0. 8.69565178e-003 0. 0. 0. 8.69565178e-003 0.
      8.69565178e-003 0. 1.73913036e-002 8.69565178e-003 0. 0. 0. 0. 0.
      3.47826071e-002 0. 0. 8.69565178e-003 0. 0. 8.69565178e-003 0. 0.
      0. 0. 0. 0. 8.69565178e-003 0. 0. 0. 8.69565178e-003 0.
      1.73913036e-002 0. 0. 0. 0. 8.69565178e-003 0. 8.69565178e-003
      8.69565178e-003 0. 2.60869563e-002 0. 0. 8.69565178e-003
      1.73913036e-002 0. 2.60869563e-002 0. 1.73913036e-002
      1.73913036e-002 0. 0. 0. 8.69565178e-003 2.60869563e-002 0.
      2.60869563e-002 0. 8.69565178e-003 1.73913036e-002 8.69565178e-003
      0. 0. 0. 0. 0. 0. 0. 8.69565178e-003 0. 0. 1.73913036e-002 0. 0.
      0. 0. 1.73913036e-002 0. 0. 0. 0. 0. 8.69565178e-003 0.
      8.69565178e-003 0. 1.73913036e-002 0. 8.69565178e-003
      1.73913036e-002 0. 0. 6.08695634e-002 5.21739125e-002 0. 0.
      8.69565178e-003 0. 0. 0. 0. 0. 0. 0. 0. 2.60869563e-002 0. 0.</_>
    <_>
      0. 0. 9.99999978e-003 0. 0. 0. 9.99999978e-003 0. 0. 0. 0. 0. 0.
      0. 0. 0. 0. 0. 9.99999978e-003 0. 9.99999978e-003 0. 0. 0. 0. 0.
      0. 0. 0. 0. 0. 0. 0. 0. 1.99999996e-002 0. 9.99999978e-003 0. 0.
      2.99999993e-002 0. 0. 9.99999978e-003 0. 5.99999987e-002
      1.99999996e-002 0. 0. 0. 9.99999978e-003 0. 0. 0. 0. 0.
      9.99999978e-003 0. 9.99999978e-003 1.99999996e-002 0.
      2.99999993e-002 0. 0. 0. 0. 9.99999978e-003 0. 1.99999996e-002 0.
      0. 0. 0. 0. 0. 1.99999996e-002 0. 0. 0. 0. 0. 0. 0. 0. 0. 0. 0.
      1.99999996e-002 0. 0. 0. 0. 0. 0. 9.99999978e-003 0. 0.
      9.99999940e-002 9.99999978e-003 0. 0. 0. 0. 0. 3.99999991e-002 0.
      0. 9.99999978e-003 9.99999978e-003 0. 9.99999978e-003 0. 0.
      2.99999993e-002 0. 0. 0. 0. 0. 0. 0. 0. 0. 0. 0. 0. 0. 0. 0. 0. 0.
      0. 0. 9.99999978e-003 0. 1.99999996e-002 9.99999978e-003 0.
      9.99999978e-003 9.99999978e-003 0. 1.99999996e-002 0. 0. 0. 0. 0.
      9.99999978e-003 0. 0. 1.99999996e-002 9.99999978e-003 0. 0. 0.
      9.99999978e-003 0. 0. 9.99999978e-003 9.99999978e-003 0.
      9.99999978e-003 0. 0. 9.99999978e-003 0. 9.99999978e-003 0. 0.
      9.99999978e-003 0. 9.99999978e-003 0. 0. 0. 9.99999978e-003 0. 0.
      0. 9.99999978e-003 0. 1.99999996e-002 0. 0. 0. 1.99999996e-002
      5.99999987e-002 0. 0. 9.99999978e-003 4.99999970e-002
      9.99999978e-003 1.99999996e-002 9.99999978e-003 0. 0. 0.
      9.99999978e-003 0. 0. 9.99999978e-003</_>
    <_>
      0. 0. 0. 0. 0. 0. 0. 0. 0. 0. 0. 1.48148146e-002 1.48148146e-002
      0. 0. 0. 0. 0. 7.40740728e-003 0. 0. 0. 0. 1.48148146e-002 0. 0.
      0. 0. 0. 0. 0. 0. 0. 0. 0. 7.40740728e-003 0. 7.40740728e-003 0.
      0. 0. 0. 0. 0. 6.66666627e-002 7.40740728e-003 0. 0. 0. 0. 0.
      1.48148146e-002 0. 0. 0. 7.40740728e-003 0. 2.96296291e-002 0. 0.
      5.18518500e-002 0. 2.22222209e-002 0. 7.40740728e-003 0. 0. 0.
      7.40740728e-003 0. 0. 2.22222209e-002 0. 0. 2.22222209e-002 0. 0.
      0. 0. 0. 0. 0. 0. 0. 0. 0. 7.40740728e-003 7.40740728e-003 0. 0.
      0. 0. 0. 0. 1.48148146e-002 0. 4.44444418e-002 0. 0. 0. 0. 0. 0.
      7.40740728e-003 1.48148146e-002 0. 0. 0. 0. 7.40740728e-003 0. 0.
      0. 0. 0. 0. 0. 7.40740728e-003 0. 7.40740728e-003 0. 0. 0.
      7.40740728e-003 0. 7.40740728e-003 0. 0. 0. 0. 0. 0.
      7.40740728e-003 7.40740728e-003 1.48148146e-002 1.48148146e-002
      7.40740728e-003 0. 1.48148146e-002 0. 4.44444418e-002 0. 0. 0. 0.
      0. 1.48148146e-002 0. 2.96296291e-002 0. 0. 0. 0. 0.
      7.40740728e-003 0. 0. 0. 1.48148146e-002 0. 2.96296291e-002 0. 0.
      7.40740728e-003 0. 0. 7.40740728e-003 0. 1.48148146e-002 0. 0.
      7.40740728e-003 0. 7.40740728e-003 2.22222209e-002 0. 0.
      7.40740728e-003 0. 7.40740728e-003 0. 7.40740728e-003 0. 0.
      4.44444418e-002 4.44444418e-002 0. 0. 1.48148146e-002
      5.18518500e-002 0. 0. 1.48148146e-002 0. 0. 0. 7.40740728e-003
      5.92592582e-002 0. 7.40740728e-003</_>
    <_>
      0. 9.34579410e-003 9.34579410e-003 0. 0. 0. 2.80373823e-002 0.
      1.86915882e-002 0. 0. 1.86915882e-002 0. 0. 0. 0. 0. 0.
      9.34579410e-003 9.34579410e-003 0. 0. 0. 2.80373823e-002 0. 0. 0.
      0. 0. 0. 0. 0. 9.34579410e-003 0. 0. 0. 0. 0. 0. 1.86915882e-002
      0. 0. 1.86915882e-002 0. 9.34579410e-003 0. 0. 0. 0. 0. 0. 0.
      9.34579410e-003 0. 0. 0. 0. 0. 9.34579410e-003 0. 0. 0.
      2.80373823e-002 0. 0. 0. 9.34579410e-003 0. 0. 0. 0. 0. 0. 0.
      9.34579410e-003 0. 9.34579410e-003 0. 0. 0. 0. 9.34579410e-003 0.
      0. 0. 0. 9.34579410e-003 0. 1.86915882e-002 0. 0. 0. 0.
      9.34579410e-003 0. 0. 5.60747646e-002 0. 0. 0. 0. 0. 0. 0.
      9.34579410e-003 0. 0. 0. 0. 0. 9.34579410e-003 0. 0.
      1.86915882e-002 0. 9.34579410e-003 0. 0. 0. 0. 0. 0.
      9.34579410e-003 0. 0. 0. 0. 9.34579410e-003 0. 0. 9.34579410e-003
      2.80373823e-002 9.34579410e-003 9.34579410e-003 0. 9.34579410e-003
      9.34579410e-003 0. 2.80373823e-002 0. 1.86915882e-002 0. 0. 0. 0.
      9.34579410e-003 9.34579410e-003 0. 9.34579410e-003 0. 0. 0. 0. 0.
      0. 0. 0. 9.34579410e-003 9.34579410e-003 0. 9.34579410e-003 0.
      9.34579410e-003 0. 0. 0. 1.86915882e-002 0. 9.34579410e-003 0. 0.
      9.34579410e-003 0. 3.73831764e-002 9.34579410e-003 0. 0. 0.
      9.34579410e-003 0. 0. 5.60747646e-002 1.86915882e-002
      1.86915882e-002 1.86915882e-002 6.54205605e-002 9.34579410e-003 0.
      9.34579410e-003 0. 1.86915882e-002 0. 9.34579410e-003
      9.34579410e-003 0. 0. 0. 4.67289686e-002 0. 9.34579410e-003</_>
    <_>
      0. 1.94174759e-002 9.70873795e-003 9.70873795e-003 0. 0. 0. 0. 0.
      0. 0. 0. 0. 0. 0. 0. 0. 0. 9.70873795e-003 2.91262139e-002 0. 0.
      0. 0. 0. 9.70873795e-003 0. 0. 0. 0. 0. 0. 0. 0. 9.70873795e-003
      0. 0. 9.70873795e-003 0. 1.94174759e-002 0. 9.70873795e-003 0. 0.
      1.94174759e-002 0. 0. 0. 0. 0. 0. 9.70873795e-003 0. 0. 0. 0. 0.
      0. 0. 0. 9.70873795e-003 0. 2.91262139e-002 0. 9.70873795e-003 0.
      0. 0. 0. 0. 0. 0. 0. 0. 0. 0. 0. 0. 0. 0. 0. 9.70873795e-003 0. 0.
      0. 0. 0. 0. 0. 0. 0. 0. 0. 0. 0. 0. 4.85436916e-002 0. 0. 0. 0.
      9.70873795e-003 1.94174759e-002 0. 0. 0. 0. 0. 0. 0. 0. 0. 0.
      9.70873795e-003 0. 9.70873795e-003 0. 9.70873795e-003 0.
      1.94174759e-002 0. 0. 0. 0. 9.70873795e-003 0. 1.94174759e-002
      1.94174759e-002 0. 9.70873795e-003 1.94174759e-002 9.70873795e-003
      0. 1.94174759e-002 9.70873795e-003 1.94174759e-002 0. 0. 0. 0.
      1.94174759e-002 0. 0. 0. 9.70873795e-003 2.91262139e-002 0.
      9.70873795e-003 1.94174759e-002 9.70873795e-003 0. 9.70873795e-003
      1.94174759e-002 2.91262139e-002 0. 0. 0. 0. 2.91262139e-002 0.
      2.91262139e-002 0. 0. 0. 9.70873795e-003 0. 0. 0. 9.70873795e-003
      0. 0. 9.70873795e-003 0. 9.70873795e-003 1.94174759e-002 0.
      9.70873795e-003 0. 9.70873795e-003 0. 9.70873795e-003
      9.70873795e-003 0. 0. 5.82524277e-002 2.91262139e-002
      1.94174759e-002 0. 0. 0. 2.91262139e-002 9.70873795e-003 0.
      9.70873795e-003 0. 0. 9.70873795e-003 2.91262139e-002 0.
      9.70873795e-003</_>
    <_>
      0. 0. 0. 0. 1.16279069e-002 1.16279069e-002 1.16279069e-002 0.
      2.32558139e-002 0. 0. 0. 0. 0. 0. 0. 0. 0. 0. 0. 0. 0. 0. 0. 0.
      1.16279069e-002 0. 0. 0. 0. 0. 0. 0. 0. 2.32558139e-002 0. 0.
      1.16279069e-002 0. 4.65116277e-002 0. 0. 0. 0. 1.16279069e-002
      2.32558139e-002 0. 0. 0. 0. 0. 3.48837227e-002 0. 0. 0. 0. 0. 0.
      1.16279069e-002 0. 2.32558139e-002 0. 0. 0. 2.32558139e-002 0.
      2.32558139e-002 0. 0. 0. 1.16279069e-002 0. 0. 0. 0. 0. 0. 0. 0.
      1.16279069e-002 1.16279069e-002 0. 0. 0. 0. 0. 0. 0. 0. 0. 0. 0.
      0. 0. 0. 0. 4.65116277e-002 0. 0. 0. 0. 0. 0. 3.48837227e-002 0.
      0. 0. 0. 0. 0. 0. 0. 1.16279069e-002 0. 0. 1.16279069e-002 0. 0.
      0. 1.16279069e-002 0. 0. 0. 0. 0. 0. 1.16279069e-002
      2.32558139e-002 0. 0. 0. 0. 1.16279069e-002 0. 0. 1.16279069e-002
      0. 0. 1.16279069e-002 0. 3.48837227e-002 0. 0. 0. 0. 0. 0. 0. 0.
      0. 1.16279069e-002 2.32558139e-002 1.16279069e-002 0. 0. 0. 0.
      1.16279069e-002 1.16279069e-002 1.16279069e-002 0. 0. 0.
      2.32558139e-002 0. 2.32558139e-002 0. 1.16279069e-002
      1.16279069e-002 0. 0. 1.16279069e-002 0. 1.16279069e-002 0. 0. 0.
      0. 8.13953504e-002 0. 1.16279069e-002 0. 0. 0. 2.32558139e-002
      3.48837227e-002 1.16279069e-002 2.32558139e-002 0. 1.16279069e-002
      0. 2.32558139e-002 0. 0. 0. 0. 2.32558139e-002 0. 0.
      2.32558139e-002</_>
    <_>
      0. 0. 9.17431153e-003 0. 0. 9.17431153e-003 0. 0. 0. 0. 0.
      2.75229346e-002 0. 0. 0. 0. 0. 9.17431153e-003 0. 9.17431153e-003
      0. 0. 0. 1.83486231e-002 0. 0. 0. 0. 9.17431153e-003 0. 0. 0. 0.
      0. 0. 0. 9.17431153e-003 1.83486231e-002 0. 9.17431153e-003 0. 0.
      9.17431153e-003 0. 1.83486231e-002 0. 0. 9.17431153e-003 0. 0. 0.
      9.17431153e-003 0. 0. 0. 0. 0. 0. 3.66972461e-002 0.
      2.75229346e-002 0. 0. 0. 0. 0. 0. 0. 9.17431153e-003 0. 0.
      2.75229346e-002 0. 0. 1.83486231e-002 0. 0. 0. 0. 0. 0. 0. 0. 0.
      0. 0. 0. 9.17431153e-003 0. 9.17431153e-003 0. 9.17431153e-003 0.
      0. 0. 0. 1.00917429e-001 0. 0. 0. 0. 0. 0. 9.17431153e-003 0. 0.
      0. 0. 0. 0. 0. 0. 0. 9.17431153e-003 0. 0. 9.17431153e-003
      1.83486231e-002 0. 0. 0. 9.17431153e-003 0. 0. 0. 0. 0. 0. 0. 0.
      0. 0. 9.17431153e-003 1.83486231e-002 0. 9.17431153e-003 0. 0.
      9.17431153e-003 1.83486231e-002 5.50458692e-002 1.83486231e-002 0.
      0. 0. 0. 1.83486231e-002 0. 9.17431153e-003 9.17431153e-003
      3.66972461e-002 1.83486231e-002 0. 0. 0. 0. 0. 9.17431153e-003
      9.17431153e-003 0. 0. 0. 0. 0. 0. 0. 1.83486231e-002 0.
      2.75229346e-002 0. 0. 0. 0. 2.75229346e-002 9.17431153e-003
      9.17431153e-003 0. 9.17431153e-003 0. 0. 0. 9.17431153e-003 0.
      9.17431153e-003 2.75229346e-002 2.75229346e-002 9.17431153e-003
      9.17431153e-003 1.83486231e-002 0. 0. 0. 9.17431153e-003
      9.17431153e-003 0. 0. 2.75229346e-002 1.83486231e-002 0. 0.</_>
    <_>
      0. 0. 1.88679248e-002 0. 0. 0. 0. 0. 0. 0. 0. 7.54716992e-002 0.
      0. 0. 0. 0. 0. 0. 3.77358496e-002 0. 0. 0. 0. 0. 0. 0. 0. 0. 0.
      1.88679248e-002 0. 0. 0. 1.88679248e-002 0. 0. 0. 0.
      3.77358496e-002 0. 0. 0. 0. 0. 0. 0. 0. 0. 0. 0. 0. 0. 0. 0. 0. 0.
      0. 0. 0. 1.88679248e-002 0. 0. 0. 0. 0. 0. 0. 0. 0. 0.
      5.66037744e-002 0. 0. 0. 0. 0. 0. 0. 0. 0. 0. 0. 0. 0. 0. 0.
      1.88679248e-002 0. 0. 1.88679248e-002 1.88679248e-002 0. 0. 0. 0.
      1.88679248e-002 0. 0. 0. 0. 0. 0. 0. 0. 0. 1.88679248e-002 0. 0.
      1.88679248e-002 0. 0. 0. 0. 0. 0. 0. 0. 0. 0. 0. 0. 0. 0. 0. 0. 0.
      0. 0. 1.88679248e-002 0. 1.88679248e-002 1.88679248e-002 0.
      1.88679248e-002 1.88679248e-002 1.88679248e-002 0. 1.88679248e-002
      0. 3.77358496e-002 1.88679248e-002 0. 0. 0. 3.77358496e-002
      3.77358496e-002 0. 0. 0. 0. 0. 0. 0. 0. 0. 0. 0. 0. 0.
      5.66037744e-002 0. 0. 0. 0. 0. 0. 0. 7.54716992e-002 0. 0. 0. 0.
      1.88679248e-002 1.88679248e-002 1.88679248e-002 0. 0. 0. 0. 0. 0.
      0. 0. 3.77358496e-002 1.88679248e-002 0. 0. 0. 0. 0.
      1.88679248e-002 0. 0. 1.88679248e-002 0. 1.88679248e-002
      3.77358496e-002 0. 0.</_>
    <_>
      0. 5.54016605e-003 2.77008303e-003 8.31024908e-003 0. 0.
      1.38504151e-002 0. 1.66204982e-002 0. 0. 0. 5.54016605e-003 0. 0.
      0. 0. 0. 2.77008303e-003 1.66204982e-002 0. 0. 0. 1.10803321e-002
      0. 3.04709133e-002 0. 0. 0. 0. 1.10803321e-002 0. 0.
      5.54016605e-003 2.49307472e-002 0. 0. 0. 1.10803321e-002
      1.93905812e-002 0. 2.77008303e-003 0. 2.77008303e-003
      1.10803321e-002 0. 5.54016605e-003 5.54016605e-003 0. 0. 0. 0. 0.
      0. 0. 1.38504151e-002 0. 5.54016605e-003 8.31024908e-003 0.
      5.54016605e-003 0. 2.77008303e-003 0. 1.93905812e-002
      2.77008303e-003 0. 2.77008303e-003 2.77008303e-003 0. 0.
      5.54016605e-003 5.54016605e-003 0. 2.77008303e-003 0.
      5.54016605e-003 0. 2.77008303e-003 0. 0. 0. 0. 0. 5.54016605e-003
      2.77008303e-003 0. 1.10803321e-002 0. 0. 1.10803321e-002 0.
      8.31024908e-003 0. 2.77008303e-003 0. 1.10803321e-002
      5.54016605e-003 2.77008303e-003 8.31024908e-003 0. 0. 0.
      5.54016605e-003 2.77008303e-003 0. 2.77008303e-003 0. 0. 0.
      2.77008303e-003 0. 1.93905812e-002 5.54016605e-003 0.
      2.77008303e-003 2.77008303e-003 0. 0. 5.54016605e-003 0.
      2.77008303e-003 2.77008303e-003 1.66204982e-002 0. 0.
      1.66204982e-002 2.77008303e-003 2.77008303e-003 5.54016605e-003
      2.77008303e-003 8.31024908e-003 0. 2.77008303e-003 5.54016605e-003
      5.54016605e-003 1.38504151e-002 0. 5.54016605e-003 0.
      1.66204982e-002 1.38504151e-002 8.31024908e-003 1.10803321e-002 0.
      8.31024908e-003 1.10803321e-002 0. 8.31024908e-003 0.
      2.77008303e-003 5.54016605e-003 1.10803321e-002 8.31024908e-003 0.
      0. 0. 8.31024908e-003 1.38504151e-002 0. 5.54016605e-003
      2.77008303e-003 5.54016605e-003 5.54016605e-003 0. 0.
      5.54016605e-003 0. 3.04709133e-002 1.38504151e-002 0.
      1.10803321e-002 0. 1.93905812e-002 1.10803321e-002 0.
      2.77008303e-002 2.77008303e-003 1.66204982e-002 0. 2.77008303e-003
      1.66204982e-002 2.77008303e-003 0. 2.77008303e-002 1.93905812e-002
      0. 5.54016605e-003 1.38504151e-002 5.54016605e-003 5.54016605e-003
      2.77008303e-003 5.54016605e-003 5.54016605e-003 2.21606642e-002
      8.31024908e-003 2.21606642e-002 2.77008303e-002 0. 8.31024908e-003</_>
    <_>
      0. 0. 0. 9.09090880e-003 0. 0. 9.09090880e-003 0. 0. 0. 0.
      1.81818176e-002 0. 0. 0. 0. 0. 0. 9.09090880e-003 0. 0. 0. 0. 0.
      0. 0. 0. 9.09090880e-003 0. 0. 0. 0. 0. 2.72727273e-002
      3.63636352e-002 0. 0. 0. 0. 0. 0. 0. 0. 1.81818176e-002
      9.09090880e-003 9.09090880e-003 0. 0. 0. 0. 0. 0. 9.09090880e-003
      0. 0. 9.09090880e-003 0. 2.72727273e-002 0. 0. 3.63636352e-002 0.
      0. 0. 0. 9.09090880e-003 9.09090880e-003 0. 0. 0. 0. 0. 0. 0. 0.
      0. 0. 9.09090880e-003 0. 0. 9.09090880e-003 0. 0. 0. 0.
      9.09090880e-003 0. 0. 0. 0. 1.81818176e-002 0. 0. 0.
      9.09090880e-003 0. 0. 9.09090880e-003 0. 9.09090880e-003 0.
      9.09090880e-003 0. 0. 0. 0. 0. 0. 0. 0. 0. 0. 0. 0. 0.
      9.09090880e-003 0. 0. 0. 9.09090880e-003 0. 0. 0. 0. 0.
      9.09090880e-003 9.09090880e-003 0. 9.09090880e-003 0.
      9.09090880e-003 0. 0. 2.72727273e-002 0. 0. 9.09090880e-003 0.
      1.81818176e-002 0. 1.81818176e-002 0. 9.09090880e-003
      2.72727273e-002 0. 0. 0. 0. 0. 0. 0. 0. 9.09090880e-003
      9.09090880e-003 0. 0. 0. 0. 0. 0. 1.81818176e-002 9.09090880e-003
      0. 0. 0. 0. 9.09090880e-003 0. 4.54545431e-002 1.81818176e-002 0.
      0. 0. 3.63636352e-002 0. 0. 0. 0. 3.63636352e-002 0. 0.
      9.09090880e-003 0. 0. 3.63636352e-002 6.36363626e-002 0. 0.
      9.09090880e-003 9.09090880e-003 9.09090880e-003 0. 1.81818176e-002
      1.81818176e-002 9.09090880e-003 1.81818176e-002 9.09090880e-003
      7.27272704e-002 1.81818176e-002 9.09090880e-003</_>
    <_>
      0. 1.35746617e-002 4.52488707e-003 4.52488707e-003 0. 0.
      2.26244349e-002 0. 3.61990966e-002 0. 0. 1.35746617e-002
      9.04977415e-003 0. 0. 0. 0. 0. 0. 1.35746617e-002 0. 0. 0.
      4.52488707e-003 0. 4.52488698e-002 0. 1.35746617e-002 0. 0.
      4.52488707e-003 0. 4.52488707e-003 4.52488707e-003 9.04977415e-003
      0. 0. 4.52488707e-003 0. 0. 0. 4.52488707e-003 4.52488707e-003 0.
      1.80995483e-002 0. 0. 0. 0. 0. 0. 1.35746617e-002 4.52488707e-003
      0. 0. 9.04977415e-003 4.52488707e-003 0. 4.52488707e-003 0.
      2.26244349e-002 0. 1.35746617e-002 0. 4.52488707e-003
      4.52488707e-003 0. 0. 4.52488707e-003 4.52488707e-003 0. 0. 0. 0.
      0. 0. 9.04977415e-003 0. 0. 0. 0. 0. 4.52488707e-003 0. 0.
      4.52488707e-003 4.52488707e-003 0. 4.52488707e-003 0.
      9.04977415e-003 0. 4.52488707e-003 0. 0. 0. 1.35746617e-002
      4.52488707e-003 0. 1.35746617e-002 0. 0. 0. 9.04977415e-003 0. 0.
      4.52488707e-003 0. 0. 4.52488707e-003 0. 0. 4.52488707e-003
      4.52488707e-003 0. 9.04977415e-003 9.04977415e-003 0.
      4.52488707e-003 9.04977415e-003 4.52488707e-003 4.52488707e-003 0.
      0. 0. 0. 0. 0. 0. 4.52488707e-003 9.04977415e-003 1.80995483e-002
      9.04977415e-003 4.52488707e-003 9.04977415e-003 4.52488707e-003 0.
      0. 4.52488707e-003 0. 3.16742100e-002 0. 0. 4.52488707e-003
      4.52488707e-003 9.04977415e-003 3.16742100e-002 0. 4.52488707e-003
      0. 4.52488707e-003 4.52488707e-003 4.52488707e-003 1.80995483e-002
      0. 0. 0. 2.26244349e-002 9.04977415e-003 0. 9.04977415e-003 0. 0.
      4.52488707e-003 0. 0. 1.35746617e-002 0. 1.35746617e-002
      9.04977415e-003 0. 9.04977415e-003 0. 1.35746617e-002
      9.04977415e-003 4.52488707e-003 4.52488707e-003 9.04977415e-003
      4.52488707e-003 0. 4.52488707e-003 9.04977415e-003 4.52488707e-003
      0. 2.26244349e-002 3.16742100e-002 4.52488707e-003 4.52488707e-003
      0. 0. 9.04977415e-003 0. 2.26244349e-002 1.80995483e-002
      1.80995483e-002 0. 4.52488707e-003 3.61990966e-002 0.
      2.71493234e-002</_>
    <_>
      0. 1.38888890e-002 1.04166670e-002 3.47222225e-003 0. 0.
      2.43055560e-002 0. 1.38888890e-002 0. 0. 1.38888890e-002 0. 0. 0.
      0. 0. 0. 0. 3.47222225e-003 0. 0. 0. 3.47222225e-003 0.
      6.94444450e-003 0. 0. 0. 0. 3.47222225e-003 6.94444450e-003
      1.04166670e-002 3.47222225e-003 1.38888890e-002 0. 0.
      1.04166670e-002 1.73611119e-002 6.94444450e-003 0. 3.47222225e-003
      3.47222225e-003 3.47222225e-003 0. 3.47222225e-003 0. 0. 0.
      6.94444450e-003 0. 1.04166670e-002 0. 0. 0. 6.94444450e-003
      6.94444450e-003 0. 6.94444450e-003 0. 2.08333340e-002 0.
      3.47222225e-003 0. 3.47222225e-003 6.94444450e-003 2.08333340e-002
      3.47222225e-003 0. 0. 0. 1.04166670e-002 0. 0. 3.47222225e-003 0.
      3.47222225e-003 3.47222225e-003 3.47222225e-003 0. 0. 0. 0. 0. 0.
      1.04166670e-002 3.47222225e-003 2.43055560e-002 0. 0.
      6.94444450e-003 0. 3.47222225e-003 0. 0. 0. 3.47222225e-003
      6.94444450e-003 0. 1.04166670e-002 1.38888890e-002 3.47222225e-003
      0. 2.08333340e-002 0. 0. 6.94444450e-003 0. 3.47222225e-003
      1.38888890e-002 0. 0. 0. 0. 0. 6.94444450e-003 0. 0. 0.
      6.94444450e-003 0. 3.47222225e-003 0. 0. 1.04166670e-002 0.
      3.47222225e-003 1.38888890e-002 3.47222225e-003 6.94444450e-003
      3.47222225e-003 3.47222225e-003 1.38888890e-002 3.12500000e-002
      3.47222239e-002 1.38888890e-002 2.43055560e-002 3.47222225e-003
      1.04166670e-002 3.47222225e-003 1.73611119e-002 2.77777780e-002
      1.04166670e-002 1.04166670e-002 6.94444450e-003 3.47222225e-003
      1.04166670e-002 0. 0. 3.47222225e-003 0. 1.38888890e-002
      3.47222225e-003 1.38888890e-002 6.94444450e-003 0. 0.
      3.47222225e-003 3.47222225e-003 0. 3.47222225e-003 3.47222225e-003
      0. 3.47222225e-003 0. 0. 2.77777780e-002 0. 1.04166670e-002
      6.94444450e-003 0. 0. 0. 3.47222225e-003 6.94444450e-003
      3.47222225e-003 0. 0. 3.47222225e-003 0. 6.94444450e-003
      1.73611119e-002 0. 0. 1.38888890e-002 2.43055560e-002
      3.47222225e-003 3.47222225e-003 0. 0. 3.47222225e-003
      3.47222225e-003 1.04166670e-002 1.73611119e-002 0. 6.94444450e-003
      2.08333340e-002 1.73611119e-002 3.47222225e-003 6.94444450e-003</_>
    <_>
      0. 1.44694531e-002 3.21543403e-003 3.61736328e-003 2.21061101e-003
      2.00964627e-004 9.04340856e-003 0. 2.75321547e-002 0. 0.
      6.22990355e-003 3.01446952e-003 9.84726660e-003 1.60771701e-003 0.
      1.00482313e-003 3.41639854e-003 3.21543403e-003 1.18569126e-002 0.
      0. 0. 1.36655942e-002 2.00964627e-004 4.18006405e-002
      2.00964627e-004 8.64147861e-003 2.00964627e-004 1.00482313e-003
      2.41157552e-003 2.61254003e-003 2.81350478e-003 2.21061101e-003
      8.64147861e-003 0. 2.21061101e-003 1.60771701e-003 1.20578781e-002
      3.21543403e-003 1.40675239e-003 1.40675239e-003 2.61254003e-003
      1.20578776e-003 8.84244405e-003 8.03858507e-004 4.01929254e-004
      2.41157552e-003 1.40675239e-003 1.60771701e-003 6.02893881e-004
      3.21543403e-003 2.81350478e-003 0. 2.00964627e-004 4.22025705e-003
      2.41157552e-003 3.81832803e-003 9.84726660e-003 0. 8.03858507e-003
      0. 2.61254003e-003 0. 7.23472657e-003 3.81832803e-003
      6.63183257e-003 1.80868164e-003 1.80868164e-003 2.81350478e-003
      2.00964627e-004 1.12540191e-002 1.40675239e-003 2.00964627e-004
      3.01446952e-003 0. 9.24437307e-003 3.21543403e-003 1.02491956e-002
      2.00964627e-004 6.02893881e-004 3.01446952e-003 1.40675239e-003
      4.01929254e-004 6.02893881e-004 4.82315104e-003 4.01929254e-003
      5.22508007e-003 2.21061101e-003 3.61736328e-003 2.21061101e-003
      1.20578776e-003 2.81350478e-003 2.61254003e-003 5.02411555e-003
      4.01929254e-004 1.90916397e-002 9.24437307e-003 1.60771701e-003
      1.36655942e-002 1.10530546e-002 4.01929254e-004 5.62700955e-003
      3.41639854e-003 8.03858507e-004 0. 4.22025705e-003 4.62218653e-003
      3.61736328e-003 1.40675239e-003 1.20578776e-003 4.82315104e-003
      5.02411555e-003 2.21061101e-003 2.00964627e-004 2.00964627e-003
      2.81350478e-003 2.21061101e-003 1.20578776e-003 2.61254003e-003
      1.60771701e-003 9.04340856e-003 1.60771701e-003 3.61736328e-003
      4.42122202e-003 1.40675239e-003 5.22508007e-003 4.22025705e-003
      5.82797406e-003 2.81350478e-003 2.61254003e-003 1.40675239e-003
      8.03858507e-004 1.64790992e-002 1.28617361e-002 1.50723467e-002
      1.58762056e-002 1.60771701e-003 2.73311883e-002 2.81350478e-003
      4.42122202e-003 1.12540191e-002 5.62700955e-003 1.00482313e-003
      1.60771701e-003 2.41157552e-003 8.23954958e-003 3.01446952e-003
      3.41639854e-003 1.20578776e-003 2.61254003e-003 1.08520901e-002
      6.83279708e-003 7.13424459e-002 1.60771701e-003 8.03858507e-004 0.
      4.42122202e-003 7.23472657e-003 2.61254003e-003 3.41639854e-003
      3.81832803e-003 3.01446952e-003 3.01446952e-003 4.82315104e-003
      6.02893881e-004 2.02974267e-002 1.40675239e-003 1.04501601e-002
      1.60771701e-003 4.01929254e-004 4.22025705e-003 8.03858507e-004
      6.22990355e-003 1.60771701e-003 4.01929254e-004 9.64630209e-003
      7.23472657e-003 4.01929254e-003 5.02411555e-003 6.83279708e-003
      1.24598071e-002 1.52733121e-002 1.20578776e-003 4.42122202e-003
      1.02491956e-002 9.04340856e-003 2.41157552e-003 5.62700955e-003
      3.81832803e-003 6.63183257e-003 3.21543403e-003 4.22025705e-003
      4.22025705e-003 3.41639854e-003 9.04340856e-003 5.22508007e-003
      3.39630209e-002 5.22508007e-003 4.01929254e-003</_>
    <_>
      0. 7.57575780e-003 0. 0. 0. 0. 0. 0. 0. 0. 0. 1.51515156e-002 0.
      0. 0. 0. 0. 0. 7.57575780e-003 0. 0. 0. 0. 3.03030312e-002 0.
      1.51515156e-002 0. 7.57575780e-003 0. 0. 0. 0. 7.57575780e-003 0.
      7.57575780e-003 0. 0. 0. 0. 7.57575780e-003 0. 0. 0. 0.
      4.54545468e-002 0. 0. 0. 0. 0. 0. 0. 7.57575780e-003 0. 0.
      7.57575780e-003 1.51515156e-002 7.57575780e-003 0. 0.
      3.03030312e-002 0. 1.51515156e-002 0. 0. 0. 7.57575780e-003 0.
      7.57575780e-003 0. 0. 1.51515156e-002 0. 0. 0. 0. 0.
      2.27272734e-002 7.57575780e-003 0. 0. 0. 0. 0. 0. 7.57575780e-003
      7.57575780e-003 2.27272734e-002 0. 0. 0. 0. 0. 0. 7.57575780e-003
      0. 3.78787890e-002 0. 0. 0. 7.57575780e-003 0. 0. 7.57575780e-003
      0. 0. 0. 0. 0. 7.57575780e-003 7.57575780e-003 7.57575780e-003 0.
      0. 0. 3.03030312e-002 0. 0. 0. 7.57575780e-003 0. 0. 0.
      7.57575780e-003 7.57575780e-003 0. 0. 0. 0. 7.57575780e-003
      7.57575780e-003 3.03030312e-002 1.51515156e-002 7.57575780e-003
      1.51515156e-002 0. 1.51515156e-002 0. 9.09090936e-002 0.
      2.27272734e-002 1.51515156e-002 0. 7.57575780e-003 0. 0. 0. 0. 0.
      0. 0. 0. 7.57575780e-003 0. 0. 0. 0. 7.57575780e-003 0. 0.
      1.51515156e-002 0. 0. 7.57575780e-003 0. 0. 7.57575780e-003 0.
      2.27272734e-002 1.51515156e-002 7.57575780e-003 7.57575780e-003 0.
      7.57575780e-003 1.51515156e-002 0. 0. 7.57575780e-003 0. 0.
      7.57575780e-003 7.57575780e-003 0. 0. 1.51515156e-002
      7.57575780e-003 0. 0. 7.57575780e-003 7.57575780e-003 0. 0. 0.
      7.57575780e-003 0. 7.57575780e-003 0. 9.09090936e-002 0.
      7.57575780e-003</_>
    <_>
      0. 2.58732215e-003 9.05562751e-003 0. 0. 0. 1.55239329e-002 0.
      2.84605436e-002 0. 0. 1.16429497e-002 2.58732215e-003
      1.29366107e-003 1.29366107e-003 0. 0. 0. 7.76196644e-003
      5.17464429e-003 1.29366107e-003 0. 0. 1.16429497e-002 0.
      2.58732215e-002 0. 2.58732215e-003 0. 1.29366107e-003
      9.05562751e-003 0. 1.29366107e-003 5.17464429e-003 2.97542047e-002
      0. 0. 9.05562751e-003 1.29366107e-003 9.05562751e-003 0.
      5.17464429e-003 0. 0. 1.29366107e-002 0. 0. 2.58732215e-003
      2.58732215e-003 1.29366107e-003 1.29366107e-003 3.88098322e-003
      2.58732215e-003 1.29366107e-003 0. 1.29366107e-003 1.29366107e-003
      7.76196644e-003 2.58732215e-002 0. 1.16429497e-002 0.
      7.76196644e-003 0. 1.68175939e-002 1.29366107e-003 5.17464429e-003
      1.29366107e-003 2.58732215e-003 0. 0. 1.16429497e-002
      2.58732215e-003 0. 6.46830536e-003 0. 2.58732215e-003
      3.88098322e-003 2.58732215e-003 0. 0. 1.29366107e-003
      2.58732215e-003 0. 0. 3.88098322e-003 5.17464429e-003
      1.16429497e-002 2.58732215e-003 1.29366107e-003 2.58732215e-003 0.
      1.29366107e-003 2.58732215e-003 2.58732215e-003 0. 4.13971543e-002
      0. 0. 9.05562751e-003 7.76196644e-003 0. 0. 1.03492886e-002 0. 0.
      3.88098322e-003 0. 2.58732215e-003 6.46830536e-003 6.46830536e-003
      2.58732215e-003 3.88098322e-003 2.58732215e-003 0. 1.29366107e-003
      2.58732215e-003 0. 0. 2.58732215e-003 0. 5.17464429e-003 0.
      2.58732215e-003 0. 1.29366107e-003 3.88098322e-003 1.29366107e-003
      0. 3.88098322e-003 6.46830536e-003 6.46830536e-003 6.46830536e-003
      2.58732215e-003 2.06985772e-002 6.46830536e-003 1.81112550e-002
      2.58732215e-003 3.88098322e-002 5.17464429e-003 1.03492886e-002
      2.06985772e-002 1.29366107e-003 5.17464429e-003 2.58732215e-003
      1.29366107e-003 1.42302718e-002 2.58732215e-003 3.88098322e-003
      3.88098322e-003 7.76196644e-003 3.88098322e-003 7.76196644e-003
      5.17464429e-003 1.29366107e-003 0. 0. 6.46830536e-003
      6.46830536e-003 0. 5.17464429e-003 1.29366107e-003 0.
      2.58732215e-003 0. 0. 1.42302718e-002 0. 3.23415250e-002
      2.58732215e-003 0. 2.58732215e-003 0. 3.49288508e-002
      7.76196644e-003 0. 5.17464429e-003 5.17464429e-003 2.58732215e-003
      0. 6.46830536e-003 1.94049161e-002 6.46830536e-003 3.88098322e-003
      1.55239329e-002 1.29366107e-002 2.58732215e-003 5.17464429e-003 0.
      1.29366107e-003 1.29366107e-003 5.17464429e-003 3.88098322e-003
      1.29366107e-002 1.55239329e-002 6.46830536e-003 6.46830536e-003
      3.10478657e-002 2.58732215e-003 7.76196644e-003</_>
    <_>
      0. 1.30841127e-002 7.47663574e-003 0. 5.60747692e-003 0.
      1.86915901e-002 0. 1.68224312e-002 5.60747692e-003 0.
      1.86915894e-003 1.86915894e-003 1.86915894e-003 0. 0.
      1.86915894e-003 0. 0. 1.12149538e-002 1.86915894e-003 0. 0.
      3.73831787e-003 0. 7.47663574e-003 0. 7.47663574e-003
      1.86915894e-003 0. 0. 1.86915894e-003 0. 0. 1.68224312e-002 0.
      1.86915894e-003 1.86915901e-002 1.86915894e-003 7.47663574e-003 0.
      5.60747692e-003 0. 3.73831787e-003 5.60747692e-003 1.86915894e-003
      0. 0. 0. 5.60747692e-003 1.86915894e-003 1.86915901e-002
      5.60747692e-003 0. 0. 1.12149538e-002 1.12149538e-002
      1.49532715e-002 2.24299077e-002 0. 2.05607489e-002 1.86915894e-003
      0. 0. 2.05607489e-002 9.34579503e-003 7.47663574e-003 0.
      3.73831787e-003 0. 0. 0. 0. 1.86915894e-003 2.24299077e-002
      1.86915894e-003 0. 7.47663574e-003 0. 0. 1.86915894e-003
      1.86915894e-003 0. 1.86915894e-003 0. 1.86915894e-003
      3.73831787e-003 5.60747692e-003 9.34579503e-003 0. 1.86915894e-003
      1.86915894e-003 3.73831787e-003 1.86915894e-003 1.12149538e-002
      7.47663574e-003 1.86915901e-002 5.60747692e-003 5.60747692e-003
      9.34579503e-003 0. 0. 0. 5.60747692e-003 0. 0. 5.60747692e-003
      1.86915894e-003 1.86915894e-003 1.86915894e-003 5.60747692e-003 0.
      3.73831787e-003 1.86915894e-003 0. 1.86915894e-003 1.86915894e-003
      1.86915894e-003 1.86915894e-003 0. 1.86915894e-003 1.86915894e-003
      1.86915894e-003 1.86915894e-003 3.73831787e-003 0. 7.47663574e-003
      5.60747692e-003 3.73831787e-003 5.60747692e-003 1.86915894e-003
      1.86915894e-003 1.30841127e-002 1.12149538e-002 2.24299077e-002
      2.05607489e-002 1.86915894e-003 5.60747692e-003 1.30841127e-002 0.
      7.47663574e-003 0. 3.73831787e-003 5.60747692e-003 1.86915894e-003
      5.60747692e-003 1.49532715e-002 5.60747692e-003 5.60747692e-003
      5.60747692e-003 1.86915901e-002 7.47663574e-003 1.86915894e-003
      1.86915894e-003 1.86915894e-003 1.86915894e-003 0. 3.73831787e-003
      7.47663574e-003 5.60747692e-003 3.73831787e-003 3.73831787e-003 0.
      1.86915894e-003 1.86915894e-003 0. 1.30841127e-002 3.73831787e-003
      1.86915901e-002 3.73831787e-003 0. 1.49532715e-002 0.
      9.34579503e-003 1.12149538e-002 5.60747692e-003 1.86915894e-003
      5.60747692e-003 1.12149538e-002 3.73831787e-003 7.47663574e-003
      9.34579503e-003 1.86915894e-003 5.60747692e-003 1.12149538e-002
      1.86915901e-002 5.60747692e-003 1.86915894e-003 0. 1.86915894e-003
      5.60747692e-003 1.86915894e-003 1.68224312e-002 1.12149538e-002
      1.86915894e-003 5.60747692e-003 2.24299077e-002 2.42990665e-002
      1.86915894e-003 7.47663574e-003</_>
    <_>
      0. 9.17431153e-003 0. 6.88073365e-003 0. 0. 2.29357788e-003 0.
      1.60550456e-002 0. 0. 4.58715577e-003 6.88073365e-003 0.
      2.29357788e-003 0. 0. 0. 0. 1.60550456e-002 0. 0. 0.
      4.58715577e-003 0. 2.29357788e-003 0. 9.17431153e-003 0. 0.
      2.29357788e-003 6.88073365e-003 2.29357788e-003 2.29357788e-003
      1.14678890e-002 0. 0. 2.29357788e-003 2.29357788e-003
      4.58715577e-003 0. 0. 2.29357788e-003 2.29357788e-003
      1.14678890e-002 2.29357788e-003 0. 2.29357788e-003 0. 0. 0.
      2.29357788e-003 0. 0. 0. 5.04587144e-002 2.29357788e-003
      1.37614673e-002 2.75229346e-002 0. 4.58715577e-003 0.
      4.58715577e-003 2.29357788e-003 6.88073365e-003 2.29357788e-003 0.
      4.58715577e-003 0. 4.58715577e-003 0. 2.29357788e-003
      2.98165120e-002 0. 4.58715577e-003 0. 4.58715577e-003
      2.29357788e-003 0. 0. 0. 2.29357788e-003 0. 0. 3.89908254e-002
      4.58715577e-003 2.29357788e-003 2.29357788e-003 0. 2.29357788e-003
      4.58715577e-003 0. 6.88073365e-003 0. 0. 0. 2.06422005e-002
      4.58715577e-003 0. 4.58715577e-003 4.58715577e-003 2.29357788e-003
      2.29357788e-003 0. 0. 2.29357788e-003 4.58715577e-003 0. 0.
      2.29357788e-003 2.29357788e-003 1.37614673e-002 4.81651351e-002 0.
      0. 3.21100913e-002 1.37614673e-002 0. 0. 4.58715577e-003
      4.58715577e-003 0. 2.29357788e-003 6.88073365e-003 0. 0.
      6.88073365e-003 2.29357788e-003 4.58715577e-003 6.88073365e-003
      1.14678890e-002 4.58715577e-003 4.58715577e-003 4.58715577e-003
      9.17431153e-003 4.58715577e-003 1.83486231e-002 2.29357788e-003
      4.58715577e-003 0. 9.17431153e-003 2.29357788e-003 4.58715577e-003
      6.88073365e-003 4.58715577e-003 2.29357788e-003 1.60550456e-002 0.
      1.14678890e-002 4.58715577e-003 2.29357788e-003 6.88073365e-003
      2.29357788e-003 0. 2.29357788e-003 0. 0. 6.88073365e-003
      6.88073365e-003 0. 9.17431153e-003 0. 0. 0. 0. 4.58715577e-003
      2.98165120e-002 0. 1.83486231e-002 4.58715577e-003 0.
      6.88073365e-003 0. 9.17431153e-003 1.83486231e-002 0.
      1.14678890e-002 0. 0. 2.29357788e-003 2.29357788e-003
      1.83486231e-002 0. 4.58715577e-003 1.14678890e-002 2.29357779e-002
      0. 2.29357788e-003 1.37614673e-002 1.14678890e-002 2.29357788e-003
      2.29357788e-003 1.14678890e-002 9.17431153e-003 0. 4.58715577e-003
      2.29357788e-003 2.52293572e-002 4.58715577e-003 1.60550456e-002</_>
    <_>
      0. 7.64818350e-003 9.56022937e-004 4.78011463e-003 6.69216039e-003
      9.56022937e-004 1.91204587e-003 1.91204587e-003 3.82409175e-003 0.
      0. 1.91204587e-003 4.78011463e-003 1.91204587e-003 1.91204587e-003
      0. 1.91204587e-003 9.56022937e-004 7.64818350e-003 9.56022926e-003
      9.56022937e-004 0. 4.78011463e-003 3.82409175e-003 0. 0.
      1.14722755e-002 1.43403439e-002 0. 2.86806887e-003 0.
      3.82409175e-003 1.91204587e-003 1.91204587e-003 3.82409175e-003
      2.19885278e-002 9.56022937e-004 4.78011463e-003 9.56022937e-004
      2.86806887e-003 9.56022937e-004 0. 9.56022937e-004 7.64818350e-003
      3.82409175e-003 1.14722755e-002 1.05162524e-002 1.05162524e-002
      2.86806887e-003 3.82409175e-003 3.82409175e-003 2.86806887e-003
      9.56022937e-004 0. 0. 1.24282986e-002 2.86806887e-003
      1.91204587e-003 2.00764816e-002 0. 8.60420614e-003 2.86806887e-003
      1.91204587e-003 0. 1.24282986e-002 1.14722755e-002 1.91204587e-003
      7.64818350e-003 2.86806887e-003 0. 8.60420614e-003 1.91204587e-003
      4.78011463e-003 0. 2.86806887e-003 0. 9.56022937e-004
      6.69216039e-003 1.91204587e-003 0. 5.73613774e-003 2.86806887e-003
      7.64818350e-003 9.56022937e-004 0. 2.86806887e-003 1.91204587e-003
      3.82409175e-003 9.56022937e-004 0. 9.56022937e-004 1.43403439e-002
      1.91204587e-003 1.91204587e-003 1.91204587e-003 0. 3.53728496e-002
      1.72084123e-002 4.78011463e-003 2.29445510e-002 1.91204585e-002 0.
      1.91204587e-003 2.86806887e-003 1.91204587e-003 9.56022937e-004
      8.60420614e-003 3.82409175e-003 5.73613774e-003 2.86806887e-003
      3.82409175e-003 4.78011463e-003 1.91204587e-003 0. 9.56022937e-004
      1.91204587e-003 2.86806887e-003 3.82409175e-003 1.05162524e-002
      5.73613774e-003 0. 9.56022937e-004 9.56022926e-003 3.82409175e-003
      3.82409175e-003 7.64818350e-003 9.56022937e-004 0. 9.56022926e-003
      5.73613774e-003 2.86806887e-003 9.56022937e-004 2.86806887e-003
      1.33843208e-002 1.91204587e-003 8.60420614e-003 9.56022937e-004
      4.78011463e-003 1.24282986e-002 5.73613774e-003 7.64818350e-003
      9.56022937e-004 3.82409175e-003 4.78011463e-003 1.91204587e-003
      4.78011463e-003 4.78011463e-003 2.86806887e-003 9.56022937e-004
      6.69216039e-003 9.56022937e-004 4.78011463e-003 9.56022937e-004 0.
      7.64818350e-003 3.82409175e-003 0. 2.67686415e-002 1.62523892e-002
      0. 9.56022937e-004 7.64818350e-003 9.56022937e-004 2.86806887e-003
      1.91204587e-003 8.60420614e-003 7.64818350e-003 1.14722755e-002
      7.64818350e-003 3.82409175e-003 1.33843208e-002 1.24282986e-002
      1.05162524e-002 4.78011463e-003 4.78011463e-003 9.56022926e-003 0.
      9.56022926e-003 1.91204587e-003 0. 9.56022937e-004 3.82409175e-003
      1.91204587e-003 4.78011463e-003 1.43403439e-002 1.33843208e-002
      9.56022937e-004 9.56022937e-004 7.64818350e-003 2.86806887e-003
      8.60420614e-003 2.86806887e-003 1.91204585e-002 3.82409175e-003 0.
      5.73613774e-003 2.86806887e-003 2.96367109e-002 1.91204587e-003
      2.86806878e-002</_>
    <_>
      0. 9.54032969e-003 3.46921082e-003 3.46921082e-003 1.73460541e-003
      0. 7.80572416e-003 0. 3.46921082e-003 8.67302704e-004 0.
      9.54032969e-003 3.46921082e-003 8.67302704e-004 0. 0.
      3.46921082e-003 0. 3.46921082e-003 7.80572416e-003 2.60190805e-003
      0. 0. 1.73460543e-002 8.67302704e-004 1.73460541e-003 0.
      6.93842163e-003 0. 0. 1.73460541e-003 8.67302704e-004
      3.46921082e-003 1.64787509e-002 1.82133559e-002 0. 1.73460541e-003
      9.54032969e-003 2.60190805e-003 8.67302704e-004 0. 3.46921082e-003
      2.60190805e-003 3.46921082e-003 2.94882916e-002 3.46921082e-003
      1.73460541e-003 0. 0. 1.73460541e-003 0. 9.54032969e-003
      6.93842163e-003 0. 0. 1.21422382e-002 7.80572416e-003
      1.30095407e-002 1.82133559e-002 0. 6.93842163e-003 8.67302704e-004
      5.20381611e-003 0. 1.56114483e-002 4.33651358e-003 4.33651358e-003
      8.67302704e-004 2.60190805e-003 0. 0. 6.93842163e-003
      4.33651358e-003 0. 8.67302716e-003 0. 8.67302704e-004
      3.46921082e-003 1.73460541e-003 0. 0. 1.73460541e-003
      8.67302704e-004 2.60190805e-003 1.04076322e-002 7.80572416e-003
      4.33651358e-003 1.04076322e-002 8.67302716e-003 1.73460541e-003
      2.60190805e-003 1.73460541e-003 8.67302704e-004 8.67302716e-003
      2.60190805e-003 0. 8.67302716e-003 7.80572416e-003 2.60190805e-003
      1.30095407e-002 2.60190805e-003 1.73460541e-003 1.73460541e-003
      1.73460541e-003 5.20381611e-003 0. 3.46921082e-003 1.73460541e-003
      1.73460541e-003 5.20381611e-003 2.60190805e-003 8.67302704e-004
      1.12749347e-002 3.46921082e-003 0. 1.04076322e-002 6.93842163e-003
      5.20381611e-003 1.73460541e-003 6.93842163e-003 3.46921082e-003
      8.67302704e-004 1.73460541e-003 5.20381611e-003 8.67302704e-004
      2.60190805e-003 5.20381611e-003 1.73460541e-003 4.33651358e-003
      6.93842163e-003 7.80572416e-003 4.33651358e-003 3.46921082e-003
      6.93842163e-003 1.64787509e-002 1.12749347e-002 2.51517780e-002
      3.46921082e-003 4.33651358e-003 5.20381611e-003 1.21422382e-002
      1.30095407e-002 0. 8.67302704e-004 2.60190805e-003 2.60190805e-003
      6.07111910e-003 2.60190805e-003 5.20381611e-003 3.46921082e-003
      1.04076322e-002 1.12749347e-002 3.46921082e-003 0. 2.60190805e-003
      0. 0. 6.93842163e-003 6.93842163e-003 8.67302704e-004
      8.67302716e-003 4.33651358e-003 6.07111910e-003 4.33651358e-003
      4.33651358e-003 1.73460541e-003 1.64787509e-002 1.73460541e-003
      1.04076322e-002 1.73460541e-003 6.07111910e-003 6.07111910e-003
      1.73460541e-003 5.20381611e-003 9.54032969e-003 6.07111910e-003
      1.73460541e-003 1.21422382e-002 8.67302704e-004 2.60190805e-003
      1.73460541e-003 1.56114483e-002 8.67302704e-004 1.73460541e-003
      1.12749347e-002 1.47441458e-002 8.67302716e-003 1.12749347e-002
      7.80572416e-003 2.86209900e-002 5.20381611e-003 1.73460543e-002
      6.93842163e-003 8.67302716e-003 2.60190805e-003 1.73460541e-003
      8.67302716e-003 1.21422382e-002 4.33651358e-003 9.54032969e-003</_>
    <_>
      0. 7.64818350e-003 9.56022937e-004 4.78011463e-003 6.69216039e-003
      9.56022937e-004 1.91204587e-003 1.91204587e-003 3.82409175e-003 0.
      0. 1.91204587e-003 4.78011463e-003 1.91204587e-003 1.91204587e-003
      0. 1.91204587e-003 9.56022937e-004 7.64818350e-003 9.56022926e-003
      9.56022937e-004 0. 4.78011463e-003 3.82409175e-003 0. 0.
      1.14722755e-002 1.43403439e-002 0. 2.86806887e-003 0.
      3.82409175e-003 1.91204587e-003 1.91204587e-003 3.82409175e-003
      2.19885278e-002 9.56022937e-004 4.78011463e-003 9.56022937e-004
      2.86806887e-003 9.56022937e-004 0. 9.56022937e-004 7.64818350e-003
      3.82409175e-003 1.14722755e-002 1.05162524e-002 1.05162524e-002
      2.86806887e-003 3.82409175e-003 3.82409175e-003 2.86806887e-003
      9.56022937e-004 0. 0. 1.24282986e-002 2.86806887e-003
      1.91204587e-003 2.00764816e-002 0. 8.60420614e-003 2.86806887e-003
      1.91204587e-003 0. 1.24282986e-002 1.14722755e-002 1.91204587e-003
      7.64818350e-003 2.86806887e-003 0. 8.60420614e-003 1.91204587e-003
      4.78011463e-003 0. 2.86806887e-003 0. 9.56022937e-004
      6.69216039e-003 1.91204587e-003 0. 5.73613774e-003 2.86806887e-003
      7.64818350e-003 9.56022937e-004 0. 2.86806887e-003 1.91204587e-003
      3.82409175e-003 9.56022937e-004 0. 9.56022937e-004 1.43403439e-002
      1.91204587e-003 1.91204587e-003 1.91204587e-003 0. 3.53728496e-002
      1.72084123e-002 4.78011463e-003 2.29445510e-002 1.91204585e-002 0.
      1.91204587e-003 2.86806887e-003 1.91204587e-003 9.56022937e-004
      8.60420614e-003 3.82409175e-003 5.73613774e-003 2.86806887e-003
      3.82409175e-003 4.78011463e-003 1.91204587e-003 0. 9.56022937e-004
      1.91204587e-003 2.86806887e-003 3.82409175e-003 1.05162524e-002
      5.73613774e-003 0. 9.56022937e-004 9.56022926e-003 3.82409175e-003
      3.82409175e-003 7.64818350e-003 9.56022937e-004 0. 9.56022926e-003
      5.73613774e-003 2.86806887e-003 9.56022937e-004 2.86806887e-003
      1.33843208e-002 1.91204587e-003 8.60420614e-003 9.56022937e-004
      4.78011463e-003 1.24282986e-002 5.73613774e-003 7.64818350e-003
      9.56022937e-004 3.82409175e-003 4.78011463e-003 1.91204587e-003
      4.78011463e-003 4.78011463e-003 2.86806887e-003 9.56022937e-004
      6.69216039e-003 9.56022937e-004 4.78011463e-003 9.56022937e-004 0.
      7.64818350e-003 3.82409175e-003 0. 2.67686415e-002 1.62523892e-002
      0. 9.56022937e-004 7.64818350e-003 9.56022937e-004 2.86806887e-003
      1.91204587e-003 8.60420614e-003 7.64818350e-003 1.14722755e-002
      7.64818350e-003 3.82409175e-003 1.33843208e-002 1.24282986e-002
      1.05162524e-002 4.78011463e-003 4.78011463e-003 9.56022926e-003 0.
      9.56022926e-003 1.91204587e-003 0. 9.56022937e-004 3.82409175e-003
      1.91204587e-003 4.78011463e-003 1.43403439e-002 1.33843208e-002
      9.56022937e-004 9.56022937e-004 7.64818350e-003 2.86806887e-003
      8.60420614e-003 2.86806887e-003 1.91204585e-002 3.82409175e-003 0.
      5.73613774e-003 2.86806887e-003 2.96367109e-002 1.91204587e-003
      2.86806878e-002</_>
    <_>
      0. 4.54545431e-002 0. 9.09090880e-003 9.09090880e-003 0.
      9.09090880e-003 0. 9.09090880e-003 0. 0. 9.09090880e-003 0. 0. 0.
      0. 0. 0. 0. 9.09090880e-003 0. 0. 0. 9.09090880e-003 0. 0. 0.
      1.81818176e-002 0. 0. 9.09090880e-003 0. 0. 0. 9.09090880e-003 0.
      0. 1.81818176e-002 0. 1.81818176e-002 0. 1.81818176e-002 0. 0.
      9.09090880e-003 0. 0. 9.09090880e-003 0. 0. 0. 0. 9.09090880e-003
      0. 0. 2.72727273e-002 2.72727273e-002 0. 0. 0. 1.81818176e-002 0.
      1.81818176e-002 0. 0. 0. 0. 0. 0. 0. 0. 0. 9.09090880e-003 0.
      2.72727273e-002 0. 0. 0. 0. 0. 0. 0. 0. 0. 0. 0. 0. 0.
      9.09090880e-003 0. 9.09090880e-003 0. 0. 0. 0. 0. 0. 0. 0.
      9.09090880e-003 9.09090880e-003 0. 0. 9.09090880e-003 0. 0.
      9.09090880e-003 0. 0. 0. 0. 0. 1.81818176e-002 9.09090880e-003 0.
      1.81818176e-002 0. 0. 0. 1.81818176e-002 9.09090880e-003 0. 0. 0.
      0. 0. 9.09090880e-003 9.09090880e-003 0. 1.81818176e-002 0.
      9.09090880e-003 0. 9.09090880e-003 9.09090880e-003 0. 0.
      9.09090880e-003 0. 9.09090880e-003 2.72727273e-002 9.09090880e-003
      0. 0. 1.81818176e-002 9.09090880e-003 0. 0. 9.09090880e-003 0.
      9.09090880e-003 0. 9.09090880e-003 0. 0. 0. 0. 1.81818176e-002 0.
      0. 9.09090880e-003 0. 0. 0. 0. 0. 9.09090880e-003 0.
      9.09090880e-003 4.54545431e-002 0. 9.09090880e-003 0.
      9.09090880e-003 2.72727273e-002 9.09090880e-003 0. 0.
      3.63636352e-002 0. 0. 0. 0. 9.09090880e-003 2.72727273e-002
      4.54545431e-002 9.09090880e-003 0. 0. 0. 9.09090880e-003
      9.09090880e-003 0. 9.09090880e-003 0. 0. 0. 4.54545431e-002 0. 0.</_>
    <_>
      0. 0. 1.81818176e-002 9.09090880e-003 0. 0. 0. 0. 2.72727273e-002
      0. 0. 1.81818176e-002 0. 0. 0. 0. 0. 0. 9.09090880e-003 0. 0. 0.
      0. 9.09090880e-003 0. 0. 0. 2.72727273e-002 0. 0. 9.09090880e-003
      0. 9.09090880e-003 0. 9.09090880e-003 0. 0. 0. 2.72727273e-002
      9.09090880e-003 0. 0. 0. 0. 0. 0. 0. 0. 0. 0. 0. 0.
      9.09090880e-003 0. 0. 0. 9.09090880e-003 9.09090880e-003 0. 0. 0.
      0. 0. 0. 2.72727273e-002 0. 0. 0. 9.09090880e-003 0. 0. 0. 0. 0.
      0. 0. 0. 0. 0. 0. 0. 9.09090880e-003 0. 0. 0. 9.09090880e-003
      9.09090880e-003 0. 0. 0. 0. 0. 0. 0. 0. 0. 2.72727273e-002
      9.09090880e-003 0. 9.09090880e-003 0. 9.09090880e-003
      9.09090880e-003 9.09090880e-003 0. 0. 2.72727273e-002 0. 0.
      2.72727273e-002 0. 0. 0. 9.09090880e-003 0. 0. 9.09090880e-003 0.
      0. 0. 0. 0. 1.81818176e-002 9.09090880e-003 9.09090880e-003 0.
      1.81818176e-002 0. 0. 0. 0. 0. 9.09090880e-003 0. 0. 0.
      3.63636352e-002 0. 9.09090880e-003 9.09090880e-003 7.27272704e-002
      0. 1.81818176e-002 0. 0. 1.81818176e-002 9.09090880e-003 0.
      9.09090880e-003 0. 0. 0. 0. 9.09090880e-003 0. 0. 9.09090880e-003
      9.09090880e-003 0. 0. 0. 9.09090880e-003 0. 0. 0. 0. 0. 0.
      9.09090880e-003 0. 0. 0. 0. 2.72727273e-002 1.81818176e-002 0.
      9.09090880e-003 0. 3.63636352e-002 1.81818176e-002 9.09090880e-003
      9.09090880e-003 9.09090880e-003 0. 3.63636352e-002 3.63636352e-002
      0. 9.09090880e-003 9.09090880e-003 0. 0. 9.09090880e-003 0. 0. 0.
      9.09090880e-003 9.09090880e-003 9.09090880e-003 9.09090880e-003
      1.81818176e-002</_>
    <_>
      0. 2.53164563e-002 1.26582282e-002 0. 0. 0. 1.26582282e-002 0. 0.
      0. 0. 1.26582282e-002 0. 0. 0. 0. 0. 0. 1.26582282e-002
      1.26582282e-002 0. 0. 0. 0. 0. 0. 0. 0. 0. 0. 1.26582282e-002 0.
      0. 2.53164563e-002 0. 0. 0. 0. 0. 1.26582282e-002 0. 0. 0. 0.
      1.26582282e-002 0. 0. 0. 0. 0. 0. 0. 0. 0. 0. 2.53164563e-002 0.
      3.79746854e-002 0. 0. 2.53164563e-002 0. 1.26582282e-002 0. 0. 0.
      1.26582282e-002 0. 0. 0. 0. 3.79746854e-002 0. 0. 3.79746854e-002
      0. 0. 0. 0. 0. 0. 0. 0. 0. 0. 0. 2.53164563e-002 0. 0. 0. 0. 0. 0.
      0. 2.53164563e-002 0. 2.53164563e-002 0. 0. 0. 0. 0. 0.
      1.26582282e-002 0. 0. 0. 0. 0. 0. 0. 0. 2.53164563e-002 0. 0. 0.
      0. 0. 0. 0. 1.26582282e-002 0. 0. 0. 1.26582282e-002 0. 0. 0. 0.
      0. 0. 5.06329127e-002 1.26582282e-002 0. 1.26582282e-002
      1.26582282e-002 0. 1.26582282e-002 1.26582282e-002 1.26582282e-002
      1.26582282e-002 0. 0. 0. 0. 2.53164563e-002 1.26582282e-002 0.
      2.53164563e-002 0. 1.26582282e-002 0. 0. 0. 0. 1.26582282e-002 0.
      0. 1.26582282e-002 0. 0. 0. 0. 0. 0. 0. 1.26582282e-002 0.
      2.53164563e-002 1.26582282e-002 0. 2.53164563e-002 0.
      3.79746854e-002 2.53164563e-002 0. 0. 0. 0. 0. 0. 1.26582282e-002
      0. 0. 1.26582282e-002 1.26582282e-002 0. 1.26582282e-002 0.
      1.26582282e-002 0. 1.26582282e-002 0. 1.26582282e-002 0. 0.
      5.06329127e-002 0. 0. 0.</_>
    <_>
      1.10089891e-002 2.92899692e-003 1.00999896e-003 1.00999896e-003
      6.05999376e-004 8.28199182e-003 4.34299558e-003 2.62599718e-003
      3.73699609e-003 4.44399565e-003 1.00999896e-004 2.62599718e-003
      1.71699817e-003 2.72699725e-003 2.72699725e-003 1.00999896e-004
      1.37359854e-002 5.25199436e-003 2.22199783e-003 1.12109883e-002
      1.51499850e-003 0. 2.52499734e-003 4.14099591e-003 1.00999896e-004
      6.56499341e-003 0. 6.16099359e-003 8.88799131e-003 1.11099891e-003
      1.51499850e-003 3.73699609e-003 6.05999376e-004 8.88799131e-003
      4.24199551e-003 2.01999792e-004 4.34299558e-003 1.61599834e-003
      6.05999376e-004 3.63599625e-003 6.05999399e-003 9.08999064e-004
      1.41399854e-003 2.01999792e-003 5.85799385e-003 4.84799501e-003
      3.02999699e-003 5.65599417e-003 5.85799385e-003 2.82799709e-003
      2.12099776e-003 2.32299767e-003 2.32299767e-003 2.01999792e-004
      3.13099683e-003 1.48469843e-002 2.01999792e-003 9.79699008e-003
      3.75719629e-002 4.14099591e-003 1.03019895e-002 4.03999584e-004
      1.21199875e-003 0. 6.46399334e-003 2.01999792e-003 2.12099776e-003
      7.06999272e-004 1.21199875e-003 4.64599533e-003 7.06999272e-004
      3.53499642e-003 1.16149876e-002 3.83799616e-003 6.36299327e-003
      5.55499410e-003 1.91899808e-003 3.23199667e-003 1.21199875e-003
      5.25199436e-003 2.42399750e-003 2.52499734e-003 1.61599834e-003
      1.91899808e-003 1.11099882e-002 1.81799813e-003 1.41399854e-003
      1.61599834e-003 1.41399854e-003 4.44399565e-003 9.08999064e-004
      2.01999792e-003 3.33299651e-003 1.91899808e-003 8.88799131e-003
      6.05999399e-003 5.63579425e-002 8.48399103e-003 2.62599718e-003
      1.12109883e-002 1.46449851e-002 5.04999480e-004 7.06999272e-004
      1.14129884e-002 8.88799131e-003 9.08999064e-004 1.00999896e-003
      4.94899508e-003 5.04999480e-004 2.52499734e-003 9.08999064e-004
      3.27239670e-002 2.04019789e-002 5.04999468e-003 1.71699817e-003
      5.15099475e-003 2.82799709e-003 3.83799616e-003 2.32299767e-003
      9.08999064e-004 1.51499850e-003 1.00999896e-003 1.31299859e-003
      3.83799616e-003 2.62599718e-003 2.01999792e-004 3.02999699e-003
      3.02999688e-004 1.51499850e-003 1.81799813e-003 4.34299558e-003
      9.08999064e-004 2.72699725e-003 8.38299096e-003 4.14099591e-003
      3.53499642e-003 2.03009788e-002 1.51499850e-003 2.92899702e-002
      8.07999168e-004 2.12099776e-003 2.49469746e-002 1.78769808e-002
      6.05999376e-004 6.05999376e-004 8.07999168e-004 1.08069889e-002
      1.31299859e-003 1.00999896e-003 1.39379855e-002 6.96899276e-003
      5.75699424e-003 4.74699493e-003 5.25199436e-003 1.21199875e-003
      6.46399334e-003 0. 4.03999584e-003 8.48399103e-003 3.20169665e-002
      1.21199875e-003 1.41399854e-003 3.43399635e-003 3.43399635e-003
      1.04029896e-002 9.08999064e-004 9.39299073e-003 5.04999480e-004
      4.94899508e-003 6.05999376e-004 3.73699609e-003 9.08999052e-003
      1.00999896e-003 4.84799501e-003 1.51499850e-003 1.51499850e-003
      2.62599718e-003 9.89799015e-003 2.92899692e-003 3.23199667e-003
      1.48469843e-002 5.55499410e-003 3.43399635e-003 2.62599718e-003
      2.82799709e-003 7.06999283e-003 5.15099475e-003 2.62599718e-003
      2.62599718e-003 1.37359854e-002 2.12099776e-003 8.98899045e-003
      2.42399750e-003 1.21199875e-003 1.91899808e-003 1.31299859e-003
      6.86799269e-003 4.84799501e-003 1.81799813e-003 3.13099683e-003</_>
    <_>
      0. 8.13008100e-003 8.13008100e-003 8.13008100e-003 0. 0. 0. 0.
      8.13008100e-003 0. 0. 8.13008100e-003 0. 0. 0. 0. 0. 0.
      8.13008100e-003 1.62601620e-002 0. 0. 0. 1.62601620e-002 0. 0. 0.
      8.13008100e-003 0. 0. 1.62601620e-002 0. 0. 0. 2.43902430e-002 0.
      0. 0. 0. 2.43902430e-002 0. 0. 0. 0. 0. 0. 0. 0. 0. 0. 0. 0. 0. 0.
      0. 1.62601620e-002 8.13008100e-003 2.43902430e-002 8.13008100e-003
      0. 2.43902430e-002 0. 0. 0. 8.13008100e-003 0. 0. 0. 0. 0. 0. 0.
      0. 0. 0. 0. 0. 8.13008100e-003 0. 0. 0. 0. 0. 0. 1.62601620e-002
      2.43902430e-002 0. 2.43902430e-002 0. 0. 0. 0. 0. 0. 0. 0.
      1.62601620e-002 8.13008100e-003 8.13008100e-003 8.13008100e-003 0.
      0. 8.13008100e-003 1.62601620e-002 0. 0. 1.62601620e-002 0. 0. 0.
      0. 0. 8.13008100e-003 0. 0. 0. 0. 0. 0. 1.62601620e-002 0. 0.
      8.13008100e-003 0. 0. 0. 8.13008100e-003 8.13008100e-003 0.
      8.13008100e-003 8.13008100e-003 8.13008100e-003 8.13008100e-003
      1.62601620e-002 0. 0. 4.87804860e-002 0. 4.87804860e-002
      1.62601620e-002 2.43902430e-002 0. 0. 0. 0. 1.62601620e-002 0. 0.
      0. 0. 0. 2.43902430e-002 0. 8.13008100e-003 0. 0. 0. 0.
      1.62601620e-002 0. 8.13008100e-003 0. 0. 8.13008100e-003 0. 0. 0.
      0. 8.13008100e-003 3.25203240e-002 0. 1.62601620e-002 0.
      2.43902430e-002 8.13008100e-003 0. 0. 1.62601620e-002
      1.62601620e-002 0. 0. 8.13008100e-003 0. 0. 2.43902430e-002 0. 0.
      0. 8.13008100e-003 2.43902430e-002 8.13008100e-003 3.25203240e-002
      0. 8.13008100e-003 8.13008100e-003 0. 0. 3.25203240e-002 0.
      8.13008100e-003</_>
    <_>
      0. 7.52283726e-003 6.44814642e-003 2.14938214e-003 1.07469107e-003
      0. 1.61203668e-002 3.76141863e-003 4.83610993e-003 5.37345535e-004
      0. 4.83610993e-003 4.83610993e-003 5.37345535e-004 1.07469107e-003
      0. 1.07469107e-003 1.07469107e-003 4.29876428e-003 1.02095651e-002
      5.37345535e-004 5.37345535e-004 4.29876428e-003 1.71950571e-002 0.
      6.98549207e-003 1.61203661e-003 5.91080077e-003 0. 5.37345535e-004
      5.37345535e-004 4.29876428e-003 5.37345558e-003 2.68672779e-003
      1.34336380e-002 5.37345535e-004 1.61203661e-003 4.83610993e-003
      1.61203661e-003 6.44814642e-003 0. 1.07469107e-003 3.22407321e-003
      2.68672779e-003 2.04191301e-002 2.68672779e-003 1.07469107e-003
      1.07469107e-003 0. 2.68672779e-003 1.07469107e-003 5.91080077e-003
      1.61203661e-003 5.37345535e-004 5.37345535e-004 1.55830206e-002
      8.06018338e-003 1.02095651e-002 1.55830206e-002 0. 1.28962928e-002
      1.07469107e-003 5.37345558e-003 0. 1.23589477e-002 4.83610993e-003
      7.52283726e-003 2.14938214e-003 1.61203661e-003 0. 2.68672779e-003
      1.07469107e-003 2.14938214e-003 5.37345535e-004 4.83610993e-003 0.
      5.37345535e-004 3.22407321e-003 5.37345535e-004 0. 2.68672779e-003
      1.07469107e-003 5.37345535e-004 1.07469107e-003 1.61203661e-003
      2.14938214e-003 3.22407321e-003 8.59752856e-003 3.22407321e-003
      5.37345535e-004 2.68672779e-003 1.61203661e-003 4.29876428e-003
      1.61203661e-003 8.06018338e-003 0. 5.10478243e-002 5.91080077e-003
      3.22407321e-003 5.37345558e-003 7.52283726e-003 1.07469107e-003
      1.07469107e-003 9.67221987e-003 2.14938214e-003 0. 3.22407321e-003
      3.22407321e-003 1.61203661e-003 3.22407321e-003 4.83610993e-003
      5.37345535e-004 6.44814642e-003 1.07469107e-003 5.37345535e-004
      6.44814642e-003 6.98549207e-003 1.07469107e-003 1.07469107e-003
      3.22407321e-003 1.61203661e-003 1.61203661e-003 3.22407321e-003
      4.29876428e-003 2.14938214e-003 2.14938214e-003 6.44814642e-003
      5.37345535e-004 2.68672779e-003 4.29876428e-003 4.29876428e-003
      2.14938214e-003 9.13487375e-003 6.98549207e-003 1.28962928e-002
      1.07469112e-002 1.55830206e-002 2.14938214e-003 1.98817849e-002
      1.07469107e-003 4.83610993e-003 8.06018338e-003 5.37345558e-003
      2.68672779e-003 1.61203661e-003 2.68672779e-003 1.98817849e-002
      3.76141863e-003 4.83610993e-003 3.22407321e-003 5.37345558e-003
      1.34336380e-002 1.07469112e-002 8.59752856e-003 3.22407321e-003
      1.61203661e-003 0. 1.71950571e-002 9.67221987e-003 2.14938214e-003
      6.98549207e-003 2.14938214e-003 2.68672779e-003 1.23589477e-002
      7.52283726e-003 5.37345535e-004 1.77324023e-002 0. 2.04191301e-002
      2.68672779e-003 1.61203661e-003 7.52283726e-003 1.61203661e-003
      1.34336380e-002 2.68672779e-003 1.07469107e-003 1.61203661e-003
      1.50456745e-002 3.22407321e-003 5.37345535e-004 6.98549207e-003
      1.28962928e-002 3.22407321e-003 5.91080077e-003 5.37345558e-003
      1.88070945e-002 1.28962928e-002 1.12842564e-002 1.28962928e-002
      1.28962928e-002 5.91080077e-003 5.37345558e-003 4.29876428e-003
      6.44814642e-003 1.61203661e-003 2.68672779e-003 7.52283726e-003
      7.52283726e-003 2.14938214e-003 8.59752856e-003</_>
    <_>
      0. 2.75229346e-002 0. 1.83486231e-002 0. 0. 9.17431153e-003 0.
      9.17431153e-003 0. 0. 0. 0. 0. 0. 0. 0. 0. 0. 1.83486231e-002 0.
      0. 0. 0. 0. 9.17431153e-003 0. 0. 0. 0. 0. 0. 0. 9.17431153e-003
      3.66972461e-002 0. 0. 0. 0. 4.58715558e-002 0. 9.17431153e-003
      9.17431153e-003 0. 0. 0. 0. 0. 0. 0. 0. 0. 0. 0. 0.
      9.17431153e-003 1.83486231e-002 0. 0. 0. 9.17431153e-003 0.
      1.83486231e-002 0. 0. 1.83486231e-002 0. 0. 9.17431153e-003 0. 0.
      9.17431153e-003 0. 0. 0. 0. 0. 0. 0. 0. 0. 0. 0. 0. 0. 0.
      9.17431153e-003 0. 0. 0. 0. 0. 9.17431153e-003 0. 0. 0.
      3.66972461e-002 9.17431153e-003 0. 9.17431153e-003 0. 0. 0. 0.
      9.17431153e-003 0. 9.17431153e-003 0. 0. 9.17431153e-003 0. 0. 0.
      9.17431153e-003 0. 2.75229346e-002 9.17431153e-003 0. 0.
      9.17431153e-003 0. 0. 0. 0. 0. 0. 0. 0. 0. 0. 0. 0. 0.
      9.17431153e-003 9.17431153e-003 9.17431153e-003 0. 9.17431153e-003
      9.17431153e-003 9.17431153e-003 2.75229346e-002 0. 9.17431153e-003
      1.83486231e-002 0. 4.58715558e-002 9.17431153e-003 0.
      3.66972461e-002 0. 0. 0. 0. 0. 0. 0. 0. 0. 1.83486231e-002 0. 0.
      0. 0. 0. 0. 0. 0. 0. 1.83486231e-002 0. 0. 9.17431153e-003 0.
      2.75229346e-002 9.17431153e-003 0. 9.17431153e-003 9.17431153e-003
      4.58715558e-002 0. 1.83486231e-002 0. 0. 0. 3.66972461e-002
      6.42201826e-002 9.17431153e-003 1.83486231e-002 0. 0.
      9.17431153e-003 0. 0. 0. 9.17431153e-003 0. 0. 2.75229346e-002 0.
      9.17431153e-003</_>
    <_>
      0. 1.53846154e-002 0. 0. 0. 0. 1.53846154e-002 0. 0. 0. 0. 0. 0.
      0. 0. 0. 0. 0. 0. 7.69230770e-003 0. 0. 0. 0. 0. 0. 0. 0. 0. 0. 0.
      0. 0. 1.53846154e-002 7.69230770e-003 0. 0. 7.69230770e-003 0.
      7.69230770e-003 0. 0. 0. 0. 1.53846154e-002 0. 0. 0. 0. 0. 0. 0.
      0. 0. 0. 3.07692308e-002 7.69230770e-003 0. 0. 0. 3.07692308e-002
      0. 7.69230770e-003 0. 1.53846154e-002 7.69230770e-003 0.
      7.69230770e-003 7.69230770e-003 0. 0. 7.69230770e-003 0. 0. 0. 0.
      0. 2.30769236e-002 0. 0. 0. 0. 0. 2.30769236e-002 7.69230770e-003
      0. 7.69230770e-003 0. 0. 0. 0. 0. 0. 0. 0. 0. 1.53846154e-002 0.
      1.53846154e-002 7.69230770e-003 1.53846154e-002 0. 7.69230770e-003
      5.38461544e-002 0. 0. 0. 0. 0. 7.69230770e-003 0. 0. 0. 0. 0.
      7.69230770e-003 0. 0. 0. 1.53846154e-002 0. 0. 0. 0. 0. 0.
      1.53846154e-002 0. 7.69230770e-003 7.69230770e-003 0. 0.
      7.69230770e-003 7.69230770e-003 7.69230770e-003 7.69230770e-003
      2.30769236e-002 7.69230770e-003 2.30769236e-002 7.69230770e-003
      3.84615399e-002 1.53846154e-002 0. 1.53846154e-002 0. 0.
      1.53846154e-002 0. 7.69230770e-003 0. 0. 7.69230770e-003
      2.30769236e-002 0. 0. 7.69230770e-003 0. 7.69230770e-003
      2.30769236e-002 0. 7.69230770e-003 0. 0. 7.69230770e-003 0. 0.
      7.69230770e-003 0. 1.53846154e-002 0. 0. 0. 0. 7.69230770e-003
      7.69230770e-003 0. 7.69230770e-003 0. 1.53846154e-002 0. 0.
      2.30769236e-002 0. 0. 3.84615399e-002 5.38461544e-002 0.
      7.69230770e-003 1.53846154e-002 2.30769236e-002 0. 7.69230770e-003
      0. 0. 7.69230770e-003 0. 0. 3.84615399e-002 0. 0.</_></support_vectors>
  <decision_functions>
    <_>
      <sv_count>29</sv_count>
      <rho>-1.0073116783833089e+000</rho>
      <alpha>
        2.9388898729058976e-001 2.5992178528351800e-001
        8.3288359680162338e-001 4.3092371543889361e-003
        4.5509731108206852e-001 1. 8.0798122876378298e-001
        4.7526750391126449e-001 2.4043483455858239e-001 1.
        6.3235767481561167e-001 2.0646559560875893e-001 1.
        6.6271374241590719e-001 5.7104027578651151e-001
        5.5763822652739237e-001 1. 1. -1. -1. -1. -1. -1. -1. -1. -1.
        -1. -1. -1.</alpha>
      <index>
        0 1 2 3 4 5 6 7 8 9 10 11 12 13 14 15 16 17 18 19 20 21 22 23 24
        25 26 27 28</index></_></decision_functions></my_svm>
</opencv_storage>
